{
    "biases": [
        [
            [
                0.018173177156305644,
                -0.10487787328982412,
                -0.042286902121560596,
                0.1453577144678792,
                0.07362658144641776,
                0.05481481039288616,
                -0.013855499701500512,
                0.06025658747811373
            ]
        ],
        [
            [
                0.02047743779329718,
                0.9575640849808562
            ]
        ]
    ],
    "generation": 4437,
    "genes": {
        "attractiveness": 10.37660940890511,
        "max_speed": 9.718872271800674,
        "max_stamina": 1173.3525419774326,
        "sight_angle": 0.2805760631990092,
        "sight_distance": 308.0433264891556,
        "size": 25.0
    },
    "layer_sizes": [
        15,
        8,
        2
    ],
    "metric_game_uptime_seconds": 7203.949999944422,
    "weights": [
        [
            [
                -0.03967866940632752,
                -0.1865345256421489,
                -0.00018081255902443333,
                0.09176047928273696,
                -0.04881094586719817,
                0.005666638881873489,
                -0.004573980436883812,
                0.03190795770485744
            ],
            [
                0.02635730480911668,
                -0.09720067672518332,
                0.26923360650021316,
                -0.10760504637328584,
                -0.13623360831939105,
                -0.05525805069545486,
                0.008004784956733122,
                -0.07471214577896473
            ],
            [
                -0.12014165288598146,
                0.015171389897448241,
                -0.14848749848797013,
                -0.13111166748547684,
                0.0576748532836425,
                0.04563040720193283,
                0.2817639803448123,
                -0.049082228044984966
            ],
            [
                0.034440074150733,
                -0.008916448570795089,
                0.18567472917869213,
                -0.0811196257775447,
                0.1049586186710478,
                0.24239543663535146,
                0.056021922828084186,
                -0.07541413263865665
            ],
            [
                -0.26016202526104565,
                -0.016417153946983065,
                -0.02974582039041467,
                -0.08282821717609949,
                0.07133876810449892,
                0.08737049936773891,
                -0.03320585789667142,
                -0.19719821201916804
            ],
            [
                0.06879723614355163,
                -0.07419666578208774,
                -0.08021857851417356,
                0.06258247244215898,
                -0.1278233936802863,
                0.11334497060959108,
                0.06352159961893267,
                -0.009587455790369053
            ],
            [
                -0.01628266024691262,
                -0.07650500758545822,
                -0.2578503412072588,
                0.08211191598386063,
                -0.07922747514011902,
                -0.12156678706698619,
                -0.10841495461574137,
                -0.19521925016552968
            ],
            [
                0.08349272591147124,
                -0.15089415251207064,
                0.07030896874759814,
                0.08221926818251736,
                0.04807185679681336,
                -0.03436552484019084,
                -0.01684930287385795,
                -0.09624490608679662
            ],
            [
                -0.07878296442834504,
                -0.1379231618587086,
                -0.05317573626716561,
                0.010952385922786124,
                0.05735150550141033,
                0.032949126762540054,
                0.28083264889021703,
                -0.03630357988557428
            ],
            [
                -0.11869546522179897,
                -0.149850852260914,
                0.0617021873952384,
                0.14302146553286454,
                -0.10436489055878727,
                -0.16191731955838565,
                0.07062549595129565,
                -0.15943343112285294
            ],
            [
                -0.003683984340000758,
                0.09095866902007434,
                -0.035489350151653484,
                -0.16016951670314172,
                0.20160615740752702,
                -0.06334068614215903,
                0.19398422949528543,
                -0.16307614109835475
            ],
            [
                -0.07329759403063395,
                0.015856721761897643,
                -0.1347748323710478,
                0.09581465342177747,
                -0.1921424041207685,
                -0.07239698965978637,
                -0.26106665758921355,
                -0.10793228958134811
            ],
            [
                0.022846309347450303,
                0.1078179031867444,
                -0.037485959943575814,
                0.14766820432765118,
                0.00938264600704316,
                0.04562404670862738,
                -0.0012791368916252183,
                0.013782063694046399
            ],
            [
                -0.08652469530760748,
                0.19273585540836474,
                -0.06275562043757198,
                -0.1177484579357142,
                -0.16029093106346018,
                -0.08392897797600733,
                0.1304138842882891,
                -0.18289993996502674
            ],
            [
                0.014568645830429928,
                0.01655287337679942,
                -0.07681894679526616,
                -0.13112443226204645,
                -0.06738302188237241,
                -0.0406383600308592,
                0.1335435864639257,
                -0.05574475771974273
            ]
        ],
        [
            [
                0.17291877056789973,
                -0.0265299928521062
            ],
            [
                0.1227047419177167,
                0.001373467577259535
            ],
            [
                0.051990334544568584,
                -0.11850154290628044
            ],
            [
                -0.010068502726129669,
                0.07385559094242541
            ],
            [
                -0.03341705962292779,
                0.0673337103237571
            ],
            [
                -0.07393837052117366,
                -0.11189714118544779
            ],
            [
                -0.10178514984711509,
                0.20018123080478212
            ],
            [
                0.08471830232497941,
                -0.0794912389108427
            ]
        ]
    ]
}