{
    "biases": [
        [
            [
                -0.002257750107870272,
                -0.03520984901124818,
                0.09157370781580441,
                0.0011618379642263695,
                -0.007102433061898835,
                -0.11082589211658408,
                0.04615470728174026,
                -0.0805325497718555
            ]
        ],
        [
            [
                0.011936779680869949,
                0.9979602476594739
            ]
        ]
    ],
    "generation": 4437,
    "genes": {
        "attractiveness": 9.13855403744547,
        "max_speed": 6.222690936898957,
        "max_stamina": 872.781115511042,
        "sight_angle": 1.7952924055578892,
        "sight_distance": 210.819661870725,
        "size": 9.570490650503109
    },
    "layer_sizes": [
        15,
        8,
        2
    ],
    "metric_game_uptime_seconds": 7203.949999944422,
    "weights": [
        [
            [
                0.10497041239637556,
                -0.029133217936199583,
                -0.03647979854535571,
                -0.017835953138308446,
                -0.06004699922504121,
                0.21281434279690284,
                0.08703816202882253,
                0.06816166099951382
            ],
            [
                0.051667798866511384,
                -0.028636469821630126,
                -0.08686736071985808,
                0.03703329121992331,
                0.0005490949078696795,
                -0.1569372363684606,
                0.014963393423710699,
                -0.04025488334466531
            ],
            [
                0.007423251340596175,
                -0.06846068471890066,
                0.08050329038005435,
                0.07665760033841469,
                0.08031884805493217,
                -0.07135533847419415,
                0.12537781944297885,
                -0.081056945551526
            ],
            [
                -0.10181557305084547,
                -0.05912299780062413,
                0.04069048993238523,
                -0.08837663299033179,
                0.010531531648323824,
                -0.051639009872047524,
                0.14135218023001853,
                -0.0036787142614603738
            ],
            [
                0.011857643953714657,
                0.07469969795175677,
                0.042592889326839745,
                0.03163746991986607,
                0.18086069283938172,
                -0.05273973603297699,
                0.01776488196938088,
                0.11815453884225818
            ],
            [
                0.08582323714590201,
                0.0059702580269065785,
                0.23131726257255159,
                -0.05165849271664644,
                0.02841900294049951,
                0.04146505276833306,
                -0.058972884687060356,
                0.10823899588419006
            ],
            [
                -0.029911686876828766,
                0.14114452311720568,
                0.11183087358248567,
                -0.11283516460671901,
                -0.028130980288505712,
                -0.06567116620290175,
                -0.15061925646183807,
                -0.047990372352492205
            ],
            [
                -0.12468130878506749,
                -0.012187726276115158,
                0.17971090048095423,
                0.06261497014330958,
                0.0448718047085994,
                0.02621007462905035,
                0.03191459448967661,
                -0.09584194611321498
            ],
            [
                0.16265600485183712,
                0.0990678995121671,
                -0.02783153353812734,
                0.027825168687831015,
                -0.011426502964444158,
                -0.04393730687221064,
                0.0322578018580646,
                0.020674022770044705
            ],
            [
                0.07380498266478248,
                -0.16146456797065217,
                0.03713199337032457,
                0.09695571934930616,
                0.17389504052925855,
                -0.019384618328046357,
                0.11420976307848744,
                0.02931062654393233
            ],
            [
                0.00893302836415487,
                0.039751914083704314,
                0.16315261515245805,
                0.010538059715765272,
                0.011602099008508433,
                0.0203201581034583,
                0.18212894324023685,
                0.17580221261533144
            ],
            [
                -0.17970255391297826,
                0.07042045629506843,
                -0.08998612657911692,
                -0.012427868377077326,
                -0.0406598848835224,
                0.0009459787569917315,
                0.02626065796170294,
                -0.040011941067014334
            ],
            [
                0.06505225444221022,
                0.00202886842597547,
                -0.12833356441680438,
                0.032758218516353334,
                0.11614512955600734,
                -0.025062694056527408,
                0.07939218966883628,
                -0.09753514081499143
            ],
            [
                0.16631510303713504,
                0.007948057810219677,
                -0.10212429832530993,
                -0.20055688528565338,
                -0.049622621956283024,
                0.047326071230883525,
                0.08552074326281055,
                0.0019270276696811972
            ],
            [
                0.033894401316153275,
                -0.006353636480991395,
                0.06521244227872268,
                0.06131336392819858,
                0.17077046687289357,
                0.09602980431636186,
                0.06601048422565649,
                0.07926666176130362
            ]
        ],
        [
            [
                -0.0121284560041882,
                -0.020463556248916756
            ],
            [
                -0.08949003909361383,
                0.07758486220178061
            ],
            [
                0.057879472470489676,
                0.028765272013979035
            ],
            [
                0.11676912070960097,
                0.0012581657397185628
            ],
            [
                0.1381732892074701,
                -0.10379136120467919
            ],
            [
                0.008378003280113025,
                0.01212721548946978
            ],
            [
                0.0596942560692228,
                -0.0856367070321356
            ],
            [
                -0.011200219962567277,
                -0.19863798763109816
            ]
        ]
    ]
}