{
    "biases": [
        [
            [
                0.2076171014713952,
                -0.3886561082047538,
                0.19668414922156324,
                -0.33720725158400716,
                0.1993139629497724,
                -0.13877582805742722,
                0.24929137206838983,
                0.0740112233862771,
                0.00394727307603307,
                0.01272132968700282,
                0.4957609184356449,
                -0.3687655780387935,
                0.2986441711722283,
                -0.19749191717429296,
                0.7076909726427887,
                0.14743101315145152
            ]
        ],
        [
            [
                -0.3822032178567905,
                0.6189615890640134,
                -0.10812106046246082,
                0.08256291791634227,
                -0.3595649678353503,
                -0.3997596415055092,
                0.19170838746658359,
                -0.32385903202037514
            ]
        ],
        [
            [
                0.3459143642323181,
                1.2185194446073784
            ]
        ]
    ],
    "generation": 208,
    "genes": {
        "attractiveness": 6.712237953397655,
        "max_speed": 10.0,
        "max_stamina": 2139.0203544675774,
        "sight_angle": 1.919123899212784,
        "sight_distance": 464.0122301523249,
        "size": 5.310004301009505
    },
    "layer_sizes": [
        15,
        16,
        8,
        2
    ],
    "metric_game_uptime_seconds": 65.69400000000098,
    "weights": [
        [
            [
                0.3176939221955776,
                -0.20009482283952681,
                -0.17491595654838768,
                -0.09089495390069074,
                0.5432095943979531,
                -0.149487880751638,
                0.23241956970509528,
                0.3252677588010104,
                0.04408364195735534,
                0.232345981196774,
                0.15779839825827097,
                -0.32591514586296544,
                -0.7058987319321501,
                -0.028243086242563442,
                -0.30909445838772753,
                -0.12561555124406207
            ],
            [
                -0.3144587457516824,
                0.6395899110542128,
                0.1081122540906821,
                0.2928844005852146,
                0.14619298187569274,
                0.12097291202190738,
                0.30386504713630325,
                0.22530800058279307,
                -0.25456713929626557,
                0.11848200942247582,
                0.25454677278301185,
                -0.21075371509688215,
                -0.0968702050195181,
                -0.4799753192314351,
                0.12021694175446865,
                -0.9183094323973893
            ],
            [
                -0.42997579279535453,
                0.32354676730836984,
                -0.16983309883122324,
                0.18435128255755331,
                -0.24107714558125476,
                -0.012265237167235793,
                0.45698770090758734,
                -0.6681605579207359,
                -0.7498979769457534,
                -0.2947115500073602,
                -0.016671179403022734,
                -0.11167755790891283,
                -0.03548968694334137,
                -0.46726739537360806,
                0.31043047923765765,
                -0.173667128998405
            ],
            [
                0.06278125919067576,
                -0.4659079135421164,
                0.38778306315588595,
                0.4461664532358103,
                0.45292143373726124,
                -0.229211396026501,
                0.09996518914122307,
                -0.2991768111178265,
                -0.19155647128818865,
                -0.6318203212820477,
                -0.09632865374543119,
                -0.5934817662135884,
                0.05196937356618837,
                -0.21627953547527595,
                0.4030162960735234,
                0.09394244366580126
            ],
            [
                -0.1547970933592582,
                0.04989432630555232,
                -0.42968391558436037,
                -0.506129009728678,
                0.269176407425651,
                0.4800973778024462,
                -0.3468892998762284,
                -0.4816104311204484,
                0.46873521147211644,
                -0.09648863927263901,
                -0.1535063358866703,
                -0.4484883338833643,
                -0.40493606516844094,
                0.17119463170511146,
                -0.1369151299924543,
                -0.5775361225486025
            ],
            [
                -0.5072903203308075,
                0.416058352534542,
                0.01959309092169524,
                0.505213850439994,
                -0.059340334669112524,
                -0.03864001044472491,
                -0.1619123399723802,
                0.058469551402112074,
                -0.05105170370655768,
                -0.03050628077688161,
                -0.1934475746945421,
                0.067379751184239,
                -0.18628928668893505,
                0.3076107087686649,
                -0.03253260347107867,
                -0.021455507264154558
            ],
            [
                0.22552856812216193,
                0.4648317047315942,
                0.29554976133731226,
                -0.011956743207902853,
                0.05969673424957786,
                -0.20484297343500021,
                0.02975431499495723,
                -0.1194685891560798,
                0.19339088811746613,
                0.18191305559174448,
                -0.44464742902025023,
                -0.11526700898577522,
                0.11692450247547033,
                0.04029099034209892,
                0.10812325704963995,
                0.48346593133658067
            ],
            [
                0.6068452653660383,
                0.5279339096046068,
                -0.011052263263528664,
                -0.1011006324323794,
                -0.1726884191774922,
                0.0019324053683695552,
                0.2845150645022299,
                0.46751537308696123,
                0.6822350965164501,
                -0.12900437153776645,
                0.3503471925116665,
                0.31106595120265784,
                -0.06943899318505002,
                -0.4756724857212245,
                0.12782611681662717,
                -0.5385978694176403
            ],
            [
                0.13329701735986177,
                0.05974977150548455,
                0.427331518465066,
                0.09286535644192279,
                -0.20771373172784463,
                -0.15872893609103644,
                0.09456841023735474,
                -0.05525898471492255,
                0.42762389156213176,
                -0.5831561155903473,
                0.07273225294420615,
                0.32726812557887114,
                0.3852211110142393,
                0.4536860797003853,
                0.41669216961592626,
                0.2996691144174238
            ],
            [
                -0.1874916515050143,
                0.3485966042560814,
                0.34107430381672194,
                0.2344785437963337,
                0.21581697389950016,
                0.4168108690900961,
                -0.10139535396553724,
                -0.32564946976690623,
                -0.17139411625264764,
                0.34512827790087086,
                -0.4146638643612414,
                0.002462737348072952,
                0.6298595708679433,
                0.19584538543093602,
                -0.17892184438292563,
                -0.13342667385107684
            ],
            [
                -0.18809172247471911,
                -0.07578236728091106,
                -0.02871215843778091,
                0.45519584355300535,
                0.2133998852798155,
                0.059385694558297286,
                0.07593606587624989,
                0.11641222345988307,
                0.15167027749171896,
                0.539301864638466,
                -0.33603795998016855,
                -0.1010029290066109,
                -0.029889370813697955,
                0.03711524268873062,
                -0.1146461225282521,
                0.31121427389260947
            ],
            [
                -0.20400271549410198,
                0.8657186350223376,
                0.14894006563698475,
                -0.3816202757561108,
                0.30662273382601857,
                0.8773916878982454,
                0.4361636845720036,
                0.6814038015436091,
                -0.08132067119127179,
                -0.2028188554277221,
                -0.24427067930856478,
                0.33797020461646227,
                0.22367182652587247,
                0.13662247626131374,
                -0.30838102766105857,
                0.14796093421998585
            ],
            [
                0.1798801366081191,
                0.14466413473740783,
                -0.10797723703794879,
                0.09060578578105324,
                -0.014153420763600516,
                -0.09073978411056924,
                0.5458938191940106,
                -0.02928274308529817,
                -0.21743219728754215,
                0.09643406685364087,
                0.06124526499297331,
                -0.6198088340719531,
                0.6390257385142307,
                0.29931685778783707,
                0.05848547005845668,
                1.0323979318895098
            ],
            [
                0.3151736704100344,
                0.03745313558586885,
                0.15652816444994544,
                0.34745286069671394,
                0.02989135503642401,
                -0.47005655938295543,
                0.5351364751542222,
                0.2613116385634522,
                -0.8266619845781535,
                -0.26009377844847775,
                -0.1670664837667829,
                0.1577305343975723,
                -0.1359748258446007,
                -0.06577428975873309,
                0.07941106627103052,
                -0.03578662424293193
            ],
            [
                0.12380964283308679,
                -0.08186411264383012,
                -0.048808113286944455,
                0.07191186941454794,
                -0.18482392903753986,
                0.409476598797306,
                0.01764226232149238,
                0.1519189728263957,
                -0.26796735053320764,
                -0.2690644079449802,
                -0.4286391734687397,
                -0.14878452881515988,
                0.04741245752364903,
                0.6177181858410289,
                -0.07434582260588174,
                -0.39667253142685716
            ]
        ],
        [
            [
                1.0971687784117616,
                -0.2999663590105537,
                -0.2591436798249069,
                0.09249859144004108,
                0.35932193483755615,
                0.32674854949179344,
                0.24494527888182427,
                -0.34485821175991327
            ],
            [
                0.24364651446466135,
                -0.20518320980420232,
                0.15933546136820664,
                0.5036023348320839,
                -0.2695239873340911,
                0.19560163935238606,
                0.12849625737517728,
                -0.6149925425163645
            ],
            [
                -0.8004303451892243,
                0.03202759880717654,
                -0.20083762148979475,
                0.007965980465790501,
                0.2344576523105144,
                -0.6213732895392726,
                0.7063652719693717,
                0.5841337080127205
            ],
            [
                -0.2938139440772244,
                0.1245481520952581,
                -0.27456345055745623,
                -0.5042522182974701,
                -0.017889414550531155,
                0.46107193988559164,
                0.47453224745438327,
                -0.09633688841519139
            ],
            [
                -0.08444473896293339,
                -0.12924669454223237,
                0.3871262419188418,
                0.2973698405058579,
                0.7733231055021861,
                0.7252621858085243,
                -0.12372993095349669,
                -0.11881859005533228
            ],
            [
                0.250775005935949,
                -0.4125935886323065,
                0.06534175958174815,
                -0.5514865458869512,
                -0.24712486384790036,
                0.4771789965425638,
                0.31276894746836464,
                0.42231633887827935
            ],
            [
                0.05092504710354753,
                0.46164283578338816,
                -0.1776264507016444,
                -0.20555821183467377,
                -0.13688731472056415,
                0.13988186422326476,
                0.08364183606142317,
                -0.13458395038066864
            ],
            [
                -0.07492652954131349,
                -0.5938631121219236,
                0.2375983812211735,
                -0.3469928735267771,
                -0.5251088833570186,
                0.3041889120591279,
                -0.007393611665687833,
                -0.2990900261860091
            ],
            [
                -1.058960774408463,
                -0.2112588513591101,
                0.019994089530002424,
                -0.33022823969400206,
                0.36926698912517675,
                0.46740114865282867,
                0.6543318619658784,
                -0.017797432199718896
            ],
            [
                0.18028461005649488,
                0.2278761739066089,
                0.5310171717245394,
                -0.07136086909610317,
                -0.2769180325062427,
                -0.6055700737425874,
                0.00873975569315516,
                0.02883344266753489
            ],
            [
                0.5769871606510741,
                -0.3893550737518259,
                0.2583882099808884,
                0.17841481689553804,
                0.06079798113614819,
                0.15556994306411953,
                -0.06015695210385977,
                0.712093743011886
            ],
            [
                0.034851090877847546,
                -0.18146585324831369,
                0.05485421826675643,
                -0.3006078796971108,
                -0.3471742920331877,
                -0.1482000120094296,
                -0.33244640987976,
                0.044756551832622615
            ],
            [
                -0.8144082013434415,
                -0.2122724584379089,
                -0.5516273198467039,
                0.6619946583425216,
                0.4922499538747079,
                0.037994643093512914,
                0.428349233634982,
                0.4147505007756488
            ],
            [
                0.07470926540990415,
                0.6402902884888133,
                0.4150360549309396,
                -0.005895648435744041,
                -0.462722326013228,
                -0.41111917096679024,
                -0.470798734930793,
                0.6508399476250222
            ],
            [
                0.13707577709132432,
                -0.6716845443454778,
                -0.14394965900644355,
                0.6823557089001302,
                0.14312886504653544,
                -0.21285260435954179,
                -0.33869741100164014,
                -0.04075486100315298
            ],
            [
                0.08264563153905435,
                0.14012497134656368,
                0.61150570335085,
                -0.5994753194584672,
                0.4531316129154307,
                0.14342583473453877,
                0.2946017601009988,
                0.1753042687088891
            ]
        ],
        [
            [
                0.11588281571451436,
                -0.6551033035677407
            ],
            [
                0.23192234162482997,
                -0.30824775277748323
            ],
            [
                0.07758447423849917,
                0.034722643453568375
            ],
            [
                0.5645464968725518,
                0.5037182778950173
            ],
            [
                0.35549027749333695,
                -0.4456439858483554
            ],
            [
                0.44916650176347683,
                0.008324329778986506
            ],
            [
                -0.5774613437477646,
                -0.2768464592964071
            ],
            [
                0.2563758781543757,
                0.4046792190233206
            ]
        ]
    ]
}