{
    "biases": [
        [
            [
                -0.022726958418983114,
                0.18310167241852326,
                0.0038416741036024424,
                -0.04615624809887343,
                -0.3344061271807215,
                0.04324197796537999,
                -0.06442237416909445,
                0.2436792045870353
            ]
        ],
        [
            [
                -0.02773868213079233,
                0.9690694121631866
            ]
        ]
    ],
    "generation": 3159,
    "genes": {
        "attractiveness": 1.480792847134735,
        "max_speed": 2.0,
        "max_stamina": 527.7217087797289,
        "sight_angle": 0.20317060914221133,
        "sight_distance": 136.76000117392292,
        "size": 22.075321622045838
    },
    "layer_sizes": [
        15,
        8,
        2
    ],
    "metric_game_uptime_seconds": 5283.488999979009,
    "weights": [
        [
            [
                0.06614337383708055,
                -0.07484926967964495,
                -0.04233222192662289,
                0.09637427439407655,
                -0.08610529837982096,
                -0.049520752719984504,
                -0.009513928722361925,
                0.1337746401318523
            ],
            [
                0.22582123760482872,
                -0.02833754414515092,
                -0.10155515582481742,
                -0.14653669377786147,
                0.06242570544664611,
                -0.08655138799045145,
                -0.10387920347461703,
                0.1503837923508671
            ],
            [
                0.06255320147941264,
                0.1318381137487676,
                0.061862380757553,
                0.01076419805892932,
                0.1332967505673867,
                -0.22281488786077297,
                -0.08895202890767095,
                0.04908914681236097
            ],
            [
                0.05554669305962075,
                0.018894902303276572,
                -0.1918189271240257,
                0.18630146287616342,
                -0.3553214032794677,
                0.04112016139930287,
                0.03953888216487201,
                0.041020898663394395
            ],
            [
                -0.12861879559452175,
                0.04682808881255127,
                -0.11856042636240216,
                0.14623930152238324,
                0.10224835627070296,
                -0.059688360809115576,
                -0.2554843972430879,
                -0.0010969647892829539
            ],
            [
                -0.09518284629468445,
                0.037638018866185174,
                0.018445945792712994,
                -0.18858468100542236,
                -0.07729048505322851,
                -0.06048377279150579,
                -0.1788575688836042,
                0.03746496414767511
            ],
            [
                0.12389348330876543,
                -0.03814605422934922,
                0.0503697211961691,
                -0.2015960191622519,
                -0.04351524106113261,
                0.13166001813096953,
                0.08532944535921146,
                -0.03465852205587411
            ],
            [
                -0.19973883563620393,
                0.04267123582520557,
                0.1442103867190766,
                -0.0633383910129252,
                0.10110819916137706,
                0.015989318990294456,
                -0.042045326290389595,
                -0.0598632944057457
            ],
            [
                -0.007554202011008976,
                0.0672407669049172,
                -0.0011201740737952354,
                0.03684547308608038,
                -0.16049484402808614,
                0.0910656825838489,
                0.00035443394569604526,
                0.1627839371508154
            ],
            [
                0.04509118148842926,
                0.0012758416514824199,
                0.09253495791230663,
                -0.10300707322383673,
                -0.13090823300681734,
                0.08853709465911129,
                -0.03264347282660301,
                -0.1838793296335449
            ],
            [
                0.04664920874763153,
                0.024886429092119577,
                -0.008951474141949835,
                0.19424751142365596,
                -0.06381104024060935,
                0.028150838277278392,
                0.07048015179914134,
                -0.11304737680405937
            ],
            [
                0.1255230680380394,
                -0.19860098285466832,
                -0.08550084277596,
                -0.05415888344833973,
                -0.18955385746345357,
                -0.07397162398296848,
                -0.10245021366878972,
                -0.08761776356122387
            ],
            [
                -0.19524018586820796,
                0.15468166801429714,
                -0.129409444365809,
                0.04298915679759141,
                0.12369573323667404,
                -0.14716026916938138,
                -0.09784742072952315,
                -0.11735591373899876
            ],
            [
                -0.055440316553995575,
                0.310517686553417,
                -0.069071147216047,
                -0.21356983468535742,
                0.015873121337280912,
                -0.0977778428583595,
                0.09954154167484434,
                -0.15834579468517557
            ],
            [
                0.0969021615982737,
                -0.04499053013016362,
                0.08578488583276392,
                0.14450627354994378,
                0.07041946229706415,
                -0.11662362916505367,
                0.0716231543601353,
                -0.11879549552027209
            ]
        ],
        [
            [
                0.02948979917931439,
                0.15548798036575312
            ],
            [
                0.0836518867551464,
                0.04002909140154609
            ],
            [
                0.00774050649053384,
                0.21842940605026495
            ],
            [
                -0.013512185486832067,
                -0.2019193668183611
            ],
            [
                -0.1272427783213592,
                0.1672685065880423
            ],
            [
                -0.10840666113275617,
                -0.08159510963914486
            ],
            [
                0.16097634853764103,
                0.05881181525563174
            ],
            [
                0.0009381593126184772,
                0.1653643724864643
            ]
        ]
    ]
}