{
    "biases": [
        [
            [
                -0.2466292312002527,
                0.5283290980333504,
                -0.15972631248024005,
                -0.3772322862957851,
                0.13733516359814676,
                0.09659175407997966,
                0.13800308454778246,
                0.12954857814378473,
                0.2153511778360869,
                0.3262569667641739,
                0.0044100617376333084,
                -0.22232632664118232,
                -0.21308984051783414,
                -0.07368921726083791,
                0.6464508749725941,
                -0.3311155276400035
            ]
        ],
        [
            [
                -0.1477699922502019,
                -0.11421069751862345,
                -0.14786949890731757,
                -0.5242430944114778,
                0.08271488920379674,
                -0.06652765510587386,
                -0.18244822672459077,
                0.2057321217367529
            ]
        ],
        [
            [
                -0.0366592671836691,
                1.0297371488590494
            ]
        ]
    ],
    "generation": 208,
    "genes": {
        "attractiveness": 11.226761139662242,
        "max_speed": 7.9356375697515364,
        "max_stamina": 2083.8868514471637,
        "sight_angle": 0.7429075182925611,
        "sight_distance": 406.9255507080354,
        "size": 5.0
    },
    "layer_sizes": [
        15,
        16,
        8,
        2
    ],
    "metric_game_uptime_seconds": 65.69400000000098,
    "weights": [
        [
            [
                -0.02096949071723661,
                -0.1862847398713748,
                0.16510103782754892,
                0.013872282129009705,
                -0.20340894118434769,
                0.017378831050426896,
                -0.05322697208765796,
                0.13162455899329806,
                -0.16751490790818035,
                -0.5713013965077636,
                -0.18824360921412384,
                -0.679946248852572,
                0.0035284772275661624,
                -0.48727784144776826,
                0.22060303811667303,
                0.25983908189911786
            ],
            [
                -0.09948304895860427,
                0.6125873842369898,
                0.044427466050277434,
                0.08615121971930458,
                -0.16820894937643116,
                0.3047795227720417,
                0.23584666242327382,
                0.20851625773431462,
                -0.2172582809771091,
                0.17094094080906402,
                -0.5138971090000626,
                -0.0706599986049489,
                -0.062025567805729015,
                -0.27629944384096095,
                -0.07605815775599559,
                -0.040514577605634455
            ],
            [
                -0.3881484122357838,
                -0.08871319704574548,
                0.18380052112581594,
                -0.1929915073449607,
                -0.5178320262821131,
                0.023049079521065788,
                -0.1373462833373837,
                -0.0017360697496143218,
                -0.06265069575049209,
                -0.19528447282072306,
                0.44900864351365455,
                0.07454537996402405,
                0.10691882729000297,
                0.5415637234516785,
                0.21977988371453744,
                -0.054753236716703485
            ],
            [
                -0.5493846672975122,
                -0.19359328579016039,
                0.15783440707150787,
                -0.4749034093586131,
                -0.3495935143183537,
                -0.6990520218221847,
                -0.3100062618520467,
                -0.16013394692551997,
                0.050491691772448555,
                0.04814398526407823,
                0.3788516048473126,
                -0.042895735897991755,
                -0.3264401906502065,
                -0.046361523776521626,
                0.052289044853053385,
                0.28515960948620467
            ],
            [
                0.23451687851999414,
                -0.07417610618424708,
                -0.646424949200512,
                0.14199151413753755,
                0.4660778646946131,
                0.18439807352559734,
                0.0364821933248729,
                0.2096526719372177,
                -0.07311482276559741,
                0.04659269877280353,
                -0.3377288389667422,
                -0.24086205064835498,
                -0.016000589469477716,
                -0.09829606072695203,
                -0.4045790823237954,
                0.02861189412989734
            ],
            [
                0.32505718997909144,
                0.2580001843628723,
                -0.07248883772799569,
                -0.2416430725416409,
                -0.3193468362582462,
                -0.1274327087504362,
                0.17307101119766166,
                -0.37667070869439034,
                0.06784974677629516,
                0.11412186039905763,
                -0.3208714868107446,
                -0.5552967502704736,
                0.12477535772014858,
                -0.07749592534745442,
                -0.07013702145968681,
                -0.08085440832262705
            ],
            [
                -0.2688094582730304,
                -0.05488894160374805,
                -0.10031988174467686,
                -0.20283872403286982,
                0.1248907247388078,
                0.20776900742510584,
                -0.14436830973510645,
                0.23823526773101136,
                -0.3948765496252422,
                -0.14486409610041495,
                -0.047704581157924086,
                0.05317428834044506,
                -0.16665658888588628,
                0.556682099505642,
                0.21486666567353085,
                -0.10841224891218686
            ],
            [
                -0.06690413383224565,
                -0.12604032827593284,
                -0.4598346893851313,
                0.2774567101175655,
                0.36523475104696257,
                0.1469589083284667,
                0.1916303419357384,
                0.0180744101321971,
                0.23006451290151522,
                0.5477340320985935,
                -0.09875767553452436,
                -0.021272679192690075,
                0.2616532838341815,
                -0.040530151762438835,
                -0.31703752904310734,
                0.1524131919173397
            ],
            [
                -0.2773801382156267,
                0.13462446060987637,
                -0.4757871241137456,
                0.08631382196719391,
                0.036914751898744866,
                0.23066522457446387,
                0.05250509412451136,
                0.26062229470759546,
                0.09687467373771494,
                -0.39572574741817407,
                0.1594710638450653,
                0.10660114849947723,
                0.03360809728373662,
                -0.21109676353567802,
                -0.07058498654916037,
                -0.009672695124186947
            ],
            [
                0.2840316137644142,
                -0.16513013063488702,
                0.12113665254235079,
                -0.14393731296133683,
                -0.004561434749579277,
                0.039651526048529784,
                0.5848712805135329,
                0.09055555203307968,
                0.12877515177664506,
                0.05828109333283246,
                -0.01483159224394165,
                0.18647179195243202,
                -0.2834939047605287,
                0.0009187868738069066,
                0.45395518377235927,
                0.13444808155559151
            ],
            [
                -0.05760929726357153,
                0.5516968720795822,
                -0.4303484383523333,
                0.5542825047055617,
                0.13555448610386236,
                0.03729450781782066,
                0.05695203663835359,
                0.008934599499010265,
                -0.22815621152398027,
                0.06253477831692791,
                -0.11763162159730534,
                0.12741829968253837,
                -0.14077744003964282,
                0.008185559108671914,
                0.06797027429158171,
                -0.0931321953060997
            ],
            [
                -0.49344857060830516,
                -0.2256657725908764,
                0.23433905428228807,
                -0.05946239135255152,
                0.2416118906856781,
                -0.3185985991397119,
                -0.272362867537432,
                -0.027847147547036794,
                0.11921561959902287,
                -0.1580941302875027,
                -0.17664357874787398,
                0.06953459721664419,
                0.07566431689982062,
                0.15365934563496353,
                -0.34031924312501394,
                0.26377083085608255
            ],
            [
                -0.19349331657159338,
                -0.2472349356857956,
                0.1331998160123446,
                -0.2851951545995706,
                0.1494239441928651,
                0.3551173639639362,
                -0.07324563660029876,
                0.16113644533380145,
                -0.17084347770915423,
                -0.1037059651181442,
                -0.16053490732242381,
                -0.40792480732674274,
                0.06529797560308215,
                0.0010933170137055331,
                0.18309264415446336,
                -0.05937070018708024
            ],
            [
                -0.3332777165002564,
                0.1254284735340278,
                -0.1284228098643437,
                -0.09494967728372727,
                -0.60228865759235,
                0.08634756968337347,
                -0.1352478462296509,
                0.0918605269869089,
                -0.12663610267763534,
                -0.3213172837312448,
                0.07141887327067341,
                0.3187320112955838,
                0.23917292533227538,
                0.3908303085975563,
                -0.17264550689278135,
                -0.2424925593499661
            ],
            [
                0.43986611391261954,
                -0.15378690650653348,
                -0.24647994881010218,
                0.21402439001815649,
                -0.3032403166019812,
                -0.18840859425990886,
                0.1766552667085634,
                -0.18274484330785193,
                0.4776381511493464,
                -0.29170935507136964,
                -0.045649100350077076,
                0.013372916791169712,
                -0.0892247540311252,
                0.4224836919828036,
                -0.07897766097254819,
                -0.09515640637078088
            ]
        ],
        [
            [
                0.49382903819166935,
                -0.1788337467253924,
                0.012270767216110395,
                0.08461559183792654,
                0.10416278478148217,
                -0.05829856304142511,
                0.5214624817364362,
                0.2476736534948914
            ],
            [
                0.0317725789567998,
                -0.1426115684736931,
                -0.32846662717146513,
                0.4350328401304786,
                -0.2908031281066898,
                -0.1626332294136591,
                -0.12462949164211094,
                0.48460417820069523
            ],
            [
                0.021694993053948702,
                -0.016516494110283816,
                0.6168678777440512,
                0.12278033983749176,
                0.2813345407258328,
                0.25946218344913463,
                0.18644676939060223,
                0.08394484140064906
            ],
            [
                0.21348915328902818,
                -0.6663293057026829,
                -0.08675270767795165,
                0.2709644910289377,
                -0.1333689862895397,
                -0.27668191913057816,
                0.19162738292511947,
                0.12083187579371768
            ],
            [
                -0.04792612783022665,
                -0.1893772455398025,
                -0.04267625520239576,
                0.048702750634060724,
                -0.36831020902611045,
                -0.0008888015006479483,
                -0.18913859355662938,
                0.01757530985484737
            ],
            [
                0.3691742870727691,
                -0.008870227995959296,
                -0.07253873399137066,
                -0.2595176946680443,
                0.256103064886935,
                -0.2246772880907237,
                0.17425830138762907,
                -0.18838576721533873
            ],
            [
                -0.3789995819470078,
                0.23953750899743284,
                -0.19214825562619173,
                0.04417608303110329,
                -0.5121866330825371,
                0.11406891726712945,
                0.08528654383159376,
                -0.2918051377694407
            ],
            [
                0.10455812303608122,
                -0.009715301193087139,
                -0.3365052088659498,
                0.16190388433890923,
                -0.27041158141312865,
                -0.00985818199501906,
                -0.20611708940857357,
                0.059152732025221144
            ],
            [
                -0.04938184727921402,
                0.4348740305027388,
                0.08077459449012243,
                -0.06769823792373135,
                0.24024390495769865,
                0.05398790300317427,
                0.20627125221452744,
                0.2715859126242336
            ],
            [
                -0.027770662568073534,
                -0.12366415847068335,
                -0.09036215654919831,
                -0.2743146235572929,
                0.10142899626565778,
                -0.09211836106361526,
                0.048005973366712196,
                -0.05445607957871938
            ],
            [
                0.2356208832599665,
                0.4745421318327745,
                0.07292050673099221,
                -0.36455595141957675,
                6.0958529065208156e-05,
                -0.20743335313348854,
                -0.06995438865416792,
                -0.18865745007131984
            ],
            [
                0.1680860289906551,
                0.30206581387308645,
                -0.09376330533958875,
                0.22749865265125746,
                0.14892956093291265,
                -0.08947865396722834,
                0.5190086503645007,
                -0.1954308996409912
            ],
            [
                -0.10213918923732329,
                -0.46108131463051194,
                -0.08658828408451434,
                -0.12473866325201269,
                0.18265141088783662,
                0.0378005663899898,
                0.11587952686632406,
                -0.04636773045258663
            ],
            [
                0.28299194656623383,
                -0.1529918173465842,
                -0.03779076676934917,
                -0.04567529490358799,
                0.4966637074415091,
                0.09899134927680528,
                0.24089370340117852,
                -0.18160315661149096
            ],
            [
                -0.0979915217393123,
                -0.1199860471515036,
                0.03862180955965683,
                -0.5172851003919279,
                -0.09551947206953909,
                0.1293553797491522,
                -0.261181738072919,
                0.0439558285608804
            ],
            [
                -0.0695781774764459,
                0.21793436862200058,
                -0.3700308143465855,
                -0.2555873262522354,
                0.028846729066487248,
                0.06595190209385215,
                0.30023685857803106,
                0.2199747765414746
            ]
        ],
        [
            [
                0.022029275649730423,
                0.1777747921694548
            ],
            [
                0.3890538746431974,
                -0.22953381191367378
            ],
            [
                0.1662302818127172,
                0.14611221823067314
            ],
            [
                -0.09510566201386267,
                -0.4480553513090296
            ],
            [
                0.0658574146763146,
                -0.2055155701226669
            ],
            [
                -0.09893938430311404,
                -0.19130155510421332
            ],
            [
                -0.046882652724041116,
                0.30360227131144674
            ],
            [
                -0.16304529186618966,
                0.33201949169156275
            ]
        ]
    ]
}